<?xml version="1.0"?>
<opencv_storage>
<cascade>
  <stageType>BOOST</stageType>
  <featureType>HAAR</featureType>
  <height>24</height>
  <width>24</width>
  <stageParams>
    <boostType>GAB</boostType>
    <minHitRate>9.9500000476837158e-01</minHitRate>
    <maxFalseAlarm>5.0000000000000000e-01</maxFalseAlarm>
    <weightTrimRate>9.4999998807907104e-01</weightTrimRate>
    <maxDepth>1</maxDepth>
    <maxWeakCount>100</maxWeakCount></stageParams>
  <featureParams>
    <maxCatCount>0</maxCatCount>
    <featSize>1</featSize>
    <mode>BASIC</mode></featureParams>
  <stageNum>4</stageNum>
  <stages>
    <!-- stage 0 -->
    <_>
      <maxWeakCount>2</maxWeakCount>
      <stageThreshold>0.</stageThreshold>
      <weakClassifiers>
        <_>
          <internalNodes>
            0 -1 8 -3.1704428693046793e-05</internalNodes>
          <leafValues>
            1. -9.7433364391326904e-01</leafValues></_>
        <_>
          <internalNodes>
            0 -1 1 -1.4923573471605778e-03</internalNodes>
          <leafValues>
            1. -1.</leafValues></_></weakClassifiers></_>
    <!-- stage 1 -->
    <_>
      <maxWeakCount>4</maxWeakCount>
      <stageThreshold>-1.7795197963714600e+00</stageThreshold>
      <weakClassifiers>
        <_>
          <internalNodes>
            0 -1 4 4.9111405387520790e-03</internalNodes>
          <leafValues>
            -9.4308143854141235e-01 3.9393940567970276e-01</leafValues></_>
        <_>
          <internalNodes>
            0 -1 9 -7.1796108386479318e-05</internalNodes>
          <leafValues>
            5.0473970174789429e-01 -8.3804965019226074e-01</leafValues></_>
        <_>
          <internalNodes>
            0 -1 6 -2.9589515179395676e-05</internalNodes>
          <leafValues>
            5.4489600658416748e-01 -7.0087194442749023e-01</leafValues></_>
        <_>
          <internalNodes>
            0 -1 13 -5.0985574489459395e-04</internalNodes>
          <leafValues>
            8.1999135017395020e-01 -5.4328471422195435e-01</leafValues></_></weakClassifiers></_>
    <!-- stage 2 -->
    <_>
      <maxWeakCount>4</maxWeakCount>
      <stageThreshold>-1.7496428489685059e+00</stageThreshold>
      <weakClassifiers>
        <_>
          <internalNodes>
            0 -1 3 1.0245641460642219e-03</internalNodes>
          <leafValues>
            -9.3491125106811523e-01 -1.8009169501351380e-17</leafValues></_>
        <_>
          <internalNodes>
            0 -1 10 -2.3000538349151611e-03</internalNodes>
          <leafValues>
            1.9202531874179840e-01 -8.1324374675750732e-01</leafValues></_>
        <_>
          <internalNodes>
            0 -1 2 -9.4369181897491217e-04</internalNodes>
          <leafValues>
            5.9646672010421753e-01 -5.6393063068389893e-01</leafValues></_>
        <_>
          <internalNodes>
            0 -1 7 -1.0502072982490063e-03</internalNodes>
          <leafValues>
            7.2337704896926880e-01 -4.4282636046409607e-01</leafValues></_></weakClassifiers></_>
    <!-- stage 3 -->
    <_>
      <maxWeakCount>5</maxWeakCount>
      <stageThreshold>-1.9432002305984497e+00</stageThreshold>
      <weakClassifiers>
        <_>
          <internalNodes>
            0 -1 5 -1.7069551348686218e-01</internalNodes>
          <leafValues>
            1. -9.1938579082489014e-01</leafValues></_>
        <_>
          <internalNodes>
            0 -1 14 1.1211144737899303e-03</internalNodes>
          <leafValues>
            -7.8108930587768555e-01 3.1283852458000183e-01</leafValues></_>
        <_>
          <internalNodes>
            0 -1 12 -2.1349542657844722e-04</internalNodes>
          <leafValues>
            6.1784446239471436e-01 -4.9674233794212341e-01</leafValues></_>
        <_>
          <internalNodes>
            0 -1 0 3.5718320868909359e-03</internalNodes>
          <leafValues>
            -4.0634024143218994e-01 6.6674298048019409e-01</leafValues></_>
        <_>
          <internalNodes>
            0 -1 11 3.2138209789991379e-03</internalNodes>
          <leafValues>
            -3.9007449150085449e-01 6.6035747528076172e-01</leafValues></_></weakClassifiers></_></stages>
  <features>
    <_>
      <rects>
        <_>
          0 1 12 4 -1.</_>
        <_>
          0 1 6 2 2.</_>
        <_>
          6 3 6 2 2.</_></rects>
      <tilted>0</tilted></_>
    <_>
      <rects>
        <_>
          0 10 11 6 -1.</_>
        <_>
          0 12 11 2 3.</_></rects>
      <tilted>0</tilted></_>
    <_>
      <rects>
        <_>
          5 1 1 9 -1.</_>
        <_>
          5 4 1 3 3.</_></rects>
      <tilted>0</tilted></_>
    <_>
      <rects>
        <_>
          5 20 4 1 -1.</_>
        <_>
          7 20 2 1 2.</_></rects>
      <tilted>0</tilted></_>
    <_>
      <rects>
        <_>
          8 20 12 1 -1.</_>
        <_>
          12 20 4 1 3.</_></rects>
      <tilted>0</tilted></_>
    <_>
      <rects>
        <_>
          9 3 14 14 -1.</_>
        <_>
          16 3 7 14 2.</_></rects>
      <tilted>0</tilted></_>
    <_>
      <rects>
        <_>
          9 11 1 3 -1.</_>
        <_>
          9 12 1 1 3.</_></rects>
      <tilted>0</tilted></_>
    <_>
      <rects>
        <_>
          10 17 2 6 -1.</_>
        <_>
          10 19 2 2 3.</_></rects>
      <tilted>0</tilted></_>
    <_>
      <rects>
        <_>
          12 8 11 3 -1.</_>
        <_>
          12 9 11 1 3.</_></rects>
      <tilted>0</tilted></_>
    <_>
      <rects>
        <_>
          13 22 6 1 -1.</_>
        <_>
          15 22 2 1 3.</_></rects>
      <tilted>0</tilted></_>
    <_>
      <rects>
        <_>
          16 3 8 5 -1.</_>
        <_>
          20 3 4 5 2.</_></rects>
      <tilted>0</tilted></_>
    <_>
      <rects>
        <_>
          17 14 4 10 -1.</_>
        <_>
          17 14 2 5 2.</_>
        <_>
          19 19 2 5 2.</_></rects>
      <tilted>0</tilted></_>
    <_>
      <rects>
        <_>
          17 20 1 4 -1.</_>
        <_>
          17 22 1 2 2.</_></rects>
      <tilted>0</tilted></_>
    <_>
      <rects>
        <_>
          19 17 5 3 -1.</_>
        <_>
          19 18 5 1 3.</_></rects>
      <tilted>0</tilted></_>
    <_>
      <rects>
        <_>
          22 6 1 6 -1.</_>
        <_>
          22 9 1 3 2.</_></rects>
      <tilted>0</tilted></_></features></cascade>
</opencv_storage>
